1.000000 0.998030 0.916740 0.646710 0.270800 0.817340 3.778020 2.114540 -5.818530 4.511360 -0.912760 -0.551570 -1.610530 -4.823940 1.037330 -6.021990 -2.496690 -3.098590 5.579090 -1.832410 -1.420390 -5.913510 6.645310 0.690280 -0.340710 -8.364870 0.625120 3.579280 -0.331730 -1.322240 6.718180 2.137420 -2.211500 2.646730 4.683310 1.374000 1.024660 -0.668720 -3.015330 2.004930 0.116250 3.091710 -0.574330 -0.619210 1.429560 -0.106660 -8.050640 0.839570 2.073310 -3.313980 1.486980 5.733300 -2.651010 3.561340 0.547880 6.468410 -1.326170 1.021230 -6.678260 -4.585070 -4.641050 -5.426040 -2.811340 0.088110 1.889790 -3.501730 -1.446060 0.556670 6.928210 -3.792560 2.987830 3.290070 -0.354500 1.799280 1.641380 -5.727690 -0.751910 -1.128380 -0.754740 -0.033740 -0.249380 -1.058920 -0.407410 -0.726580 -1.582140 -0.588440 -0.213500 -0.469360 -0.332630 -0.003290 -0.643180 -1.311420 0.749550 1.044340 -0.145100 -0.035560 -1.295280 -1.042970 -0.388070 -0.150830 0.102000 -0.961200 -0.766950 0.704720 -1.116780 -0.204220 -2.215500 0.075060 -0.897590 0.585610 0.382270 -1.472720 -0.318540 -0.973490 -0.790370 -0.284450 -0.762370 -1.405730 0.704770 -0.486880 -0.458630 -1.765840 0.919230 0.245570 -0.502200 -1.013960 -1.064770 -0.167270 -1.397560 0.056930 -1.353340 -0.988740 -0.630300 -0.982020 -1.601810 -0.826070 1.493580 -1.008780 -1.712420 -2.271940 -0.983920 0.485510 -1.908360 -0.136270 1.088200 -1.315200 -0.349530